Language model created by QuickLM on Thu Mar 26 22:21:58 EDT 2020
Copyright (c) 1996-2010 Carnegie Mellon University and Alexander I. Rudnicky

The model is in standard ARPA format, designed by Doug Paul while he was at MITRE.

The code that was used to produce this language model is available in Open Source.
Please visit http://www.speech.cs.cmu.edu/tools/ for more information

The (fixed) discount mass is 0.5. The backoffs are computed using the ratio method.
This model based on a corpus of 30 sentences and 43 words

\data\
ngram 1=43
ngram 2=74
ngram 3=66

\1-grams:
-1.0414 </s> -0.3010
-1.0414 <s> -0.2596
-2.5185 AMANDA -0.2596
-2.0414 ARE -0.2944
-2.5185 ASHLEY -0.2596
-2.5185 CAN -0.2944
-2.5185 CHRISTOPHER -0.2596
-2.5185 DANIEL -0.2596
-2.5185 DAVID -0.2596
-2.5185 DO -0.2596
-2.5185 ELIZABETH -0.2596
-2.5185 EXCUSE -0.2997
-2.5185 FROM -0.2596
-2.5185 HEATHER -0.2596
-2.5185 HELLO -0.2596
-2.5185 HOW -0.2997
-1.2175 IS -0.2739
-2.5185 JAMES -0.2596
-2.5185 JENNIFER -0.2596
-2.5185 JESSICA -0.2596
-2.5185 JOHN -0.2596
-2.5185 JOSEPH -0.2596
-2.5185 JOSHUA -0.2596
-2.5185 MATTHEW -0.2596
-2.5185 ME -0.2596
-2.5185 MELISSA -0.2596
-2.5185 MICHAEL -0.2596
-1.2175 MY -0.2725
-1.1963 NAME -0.2297
-2.5185 NICOLE -0.2596
-2.5185 NO -0.2596
-2.5185 OLD -0.2971
-2.5185 ROBERT -0.2596
-2.5185 SARAH -0.2596
-2.5185 STEPHANIE -0.2596
-2.5185 THANK -0.2944
-2.5185 WHAT -0.2997
-2.5185 WHAT'S -0.2997
-2.5185 WHERE -0.2971
-2.5185 WHO -0.2971
-2.5185 YES -0.2596
-1.8195 YOU -0.2567
-2.5185 YOUR -0.2725

\2-grams:
-1.7782 <s> EXCUSE 0.0000
-1.7782 <s> HELLO 0.0000
-1.7782 <s> HOW 0.0000
-0.4771 <s> MY 0.0000
-1.7782 <s> NO 0.0000
-1.7782 <s> THANK 0.0000
-1.7782 <s> WHAT 0.0000
-1.7782 <s> WHAT'S 0.0000
-1.7782 <s> WHERE 0.0000
-1.7782 <s> WHO 0.0000
-1.7782 <s> YES 0.0000
-0.3010 AMANDA </s> -0.3010
-0.3010 ARE YOU -0.0792
-0.3010 ASHLEY </s> -0.3010
-0.3010 CAN YOU -0.2553
-0.3010 CHRISTOPHER </s> -0.3010
-0.3010 DANIEL </s> -0.3010
-0.3010 DAVID </s> -0.3010
-0.3010 DO </s> -0.3010
-0.3010 ELIZABETH </s> -0.3010
-0.3010 EXCUSE ME 0.0000
-0.3010 FROM </s> -0.3010
-0.3010 HEATHER </s> -0.3010
-0.3010 HELLO </s> -0.3010
-0.3010 HOW OLD 0.0000
-1.6021 IS AMANDA 0.0000
-1.6021 IS ASHLEY 0.0000
-1.6021 IS CHRISTOPHER 0.0000
-1.6021 IS DANIEL 0.0000
-1.6021 IS DAVID 0.0000
-1.6021 IS ELIZABETH 0.0000
-1.6021 IS HEATHER 0.0000
-1.6021 IS JAMES 0.0000
-1.6021 IS JENNIFER 0.0000
-1.6021 IS JESSICA 0.0000
-1.6021 IS JOHN 0.0000
-1.6021 IS JOSEPH 0.0000
-1.6021 IS JOSHUA 0.0000
-1.6021 IS MATTHEW 0.0000
-1.6021 IS MELISSA 0.0000
-1.6021 IS MICHAEL 0.0000
-1.6021 IS NICOLE 0.0000
-1.6021 IS ROBERT 0.0000
-1.6021 IS SARAH 0.0000
-1.6021 IS STEPHANIE 0.0000
-0.3010 JAMES </s> -0.3010
-0.3010 JENNIFER </s> -0.3010
-0.3010 JESSICA </s> -0.3010
-0.3010 JOHN </s> -0.3010
-0.3010 JOSEPH </s> -0.3010
-0.3010 JOSHUA </s> -0.3010
-0.3010 MATTHEW </s> -0.3010
-0.3010 ME </s> -0.3010
-0.3010 MELISSA </s> -0.3010
-0.3010 MICHAEL </s> -0.3010
-0.3010 MY NAME -0.0202
-1.6232 NAME </s> -0.3010
-0.3222 NAME IS 0.0000
-0.3010 NICOLE </s> -0.3010
-0.3010 NO </s> -0.3010
-0.3010 OLD ARE 0.0000
-0.3010 ROBERT </s> -0.3010
-0.3010 SARAH </s> -0.3010
-0.3010 STEPHANIE </s> -0.3010
-0.3010 THANK YOU -0.1461
-0.3010 WHAT CAN 0.0000
-0.3010 WHAT'S YOUR 0.0000
-0.3010 WHERE ARE 0.0000
-0.3010 WHO ARE 0.0000
-0.3010 YES </s> -0.3010
-0.5229 YOU </s> -0.3010
-1.0000 YOU DO 0.0000
-1.0000 YOU FROM 0.0000
-0.3010 YOUR NAME -0.2906

\3-grams:
-0.3010 <s> EXCUSE ME
-0.3010 <s> HELLO </s>
-0.3010 <s> HOW OLD
-0.3010 <s> MY NAME
-0.3010 <s> NO </s>
-0.3010 <s> THANK YOU
-0.3010 <s> WHAT CAN
-0.3010 <s> WHAT'S YOUR
-0.3010 <s> WHERE ARE
-0.3010 <s> WHO ARE
-0.3010 <s> YES </s>
-0.4771 ARE YOU </s>
-0.7782 ARE YOU FROM
-0.3010 CAN YOU DO
-0.3010 EXCUSE ME </s>
-0.3010 HOW OLD ARE
-0.3010 IS AMANDA </s>
-0.3010 IS ASHLEY </s>
-0.3010 IS CHRISTOPHER </s>
-0.3010 IS DANIEL </s>
-0.3010 IS DAVID </s>
-0.3010 IS ELIZABETH </s>
-0.3010 IS HEATHER </s>
-0.3010 IS JAMES </s>
-0.3010 IS JENNIFER </s>
-0.3010 IS JESSICA </s>
-0.3010 IS JOHN </s>
-0.3010 IS JOSEPH </s>
-0.3010 IS JOSHUA </s>
-0.3010 IS MATTHEW </s>
-0.3010 IS MELISSA </s>
-0.3010 IS MICHAEL </s>
-0.3010 IS NICOLE </s>
-0.3010 IS ROBERT </s>
-0.3010 IS SARAH </s>
-0.3010 IS STEPHANIE </s>
-0.3010 MY NAME IS
-1.6021 NAME IS AMANDA
-1.6021 NAME IS ASHLEY
-1.6021 NAME IS CHRISTOPHER
-1.6021 NAME IS DANIEL
-1.6021 NAME IS DAVID
-1.6021 NAME IS ELIZABETH
-1.6021 NAME IS HEATHER
-1.6021 NAME IS JAMES
-1.6021 NAME IS JENNIFER
-1.6021 NAME IS JESSICA
-1.6021 NAME IS JOHN
-1.6021 NAME IS JOSEPH
-1.6021 NAME IS JOSHUA
-1.6021 NAME IS MATTHEW
-1.6021 NAME IS MELISSA
-1.6021 NAME IS MICHAEL
-1.6021 NAME IS NICOLE
-1.6021 NAME IS ROBERT
-1.6021 NAME IS SARAH
-1.6021 NAME IS STEPHANIE
-0.3010 OLD ARE YOU
-0.3010 THANK YOU </s>
-0.3010 WHAT CAN YOU
-0.3010 WHAT'S YOUR NAME
-0.3010 WHERE ARE YOU
-0.3010 WHO ARE YOU
-0.3010 YOU DO </s>
-0.3010 YOU FROM </s>
-0.3010 YOUR NAME </s>

\end\
